Language model created by QuickLM on Thu Dec 15 16:23:38 EST 2016
Copyright (c) 1996-2010 Carnegie Mellon University and Alexander I. Rudnicky

The model is in standard ARPA format, designed by Doug Paul while he was at MITRE.

The code that was used to produce this language model is available in Open Source.
Please visit http://www.speech.cs.cmu.edu/tools/ for more information

The (fixed) discount mass is 0.5. The backoffs are computed using the ratio method.
This model based on a corpus of 94 sentences and 95 words

\data\
ngram 1=95
ngram 2=190
ngram 3=172

\1-grams:
-0.9190 </s> -0.3010
-0.9190 <s> -0.2205
-2.8921 A -0.2994
-2.5911 ADDRESS -0.2453
-2.1931 ALL -0.2966
-2.5911 AM -0.2988
-2.5911 ANGRY -0.2453
-2.5911 ARE -0.2982
-2.5911 BORN -0.2453
-2.8921 BUSINESS -0.3005
-2.5911 BYE -0.2453
-2.5911 COIN -0.2453
-2.5911 CREATIVE -0.2453
-2.8921 DARK -0.2453
-2.8921 DATE -0.2453
-2.4150 DAY -0.2453
-2.8921 DEACTIVATE -0.2453
-2.8921 DEFINE -0.2453
-2.8921 DESTRUCT -0.2453
-2.8921 DO -0.2988
-2.8921 DOWN -0.2453
-2.1139 FEELING -0.2977
-2.8921 FIREFOX -0.2453
-2.8921 FLIP -0.2999
-2.8921 FUTURE -0.2453
-2.8921 GO -0.3005
-2.8921 GOOD -0.2999
-2.8921 HEADS -0.3005
-2.8921 HOROSCOPE -0.2453
-1.8507 HOW -0.2811
-2.5911 HOW'S -0.2897
-2.4150 HOWS -0.2920
-2.2900 I -0.2440
-2.4150 I'M -0.2977
-2.8921 IMAGES -0.2453
-2.5911 IP -0.2440
-1.9890 IS -0.2840
-2.8921 IT -0.2453
-2.8921 IT'S -0.2994
-2.4150 JOKE -0.2453
-2.5911 LAZY -0.2453
-2.5911 LIGHTS -0.2994
-2.5911 LIKE -0.2453
-2.5911 LOOK -0.2453
-2.8921 LOVE -0.2982
-2.8921 MARRY -0.2999
-2.5911 ME -0.2446
-2.8921 MIX -0.2453
-2.4150 MUSIC -0.2453
-2.5911 NAME -0.2453
-2.8921 NETWORK -0.2999
-2.8921 NEWS -0.2453
-2.5911 NOTE -0.2453
-2.4150 NOTES -0.2453
-2.4150 OFF -0.2453
-2.8921 OPEN -0.3005
-2.4150 PARTY -0.2966
-2.4150 PLAY -0.2427
-2.8921 POWER -0.2994
-2.8921 QUIT -0.2453
-2.8921 REPEAT -0.2453
-2.5911 SAY -0.2446
-2.8921 SELF -0.3005
-2.8921 SHOW -0.2982
-2.5911 SLEEP -0.2453
-2.8921 SOME -0.2994
-2.8921 SPELL -0.2453
-2.8921 STAND -0.3005
-2.8921 STATUS -0.2453
-2.8921 STOP -0.2453
-2.8921 SUSPEND -0.2453
-2.8921 SYSTEM -0.2453
-2.8921 SYSTEMS -0.2453
-2.8921 TAILS -0.2453
-2.4150 TELL -0.2977
-1.9379 THE -0.2897
-2.0470 TIME -0.2402
-2.8921 TO -0.2999
-2.5911 TODAY -0.2453
-2.8921 TOSS -0.2999
-2.8921 TURN -0.2960
-2.8921 TWEET -0.2453
-2.8921 UP -0.2453
-2.8921 UPLOAD -0.2453
-2.5911 UPLOADS -0.2453
-2.8921 UPTIME -0.2453
-1.8507 WEATHER -0.2440
-2.8921 WERE -0.2982
-2.1139 WHAT -0.2926
-2.2900 WHAT'S -0.2949
-2.5911 WHERE -0.2994
-2.5911 WHO -0.2988
-2.8921 WISE -0.2453
-2.1931 YOU -0.2434
-2.5911 YOUR -0.2999

\2-grams:
-1.6721 <s> ALL 0.0000
-2.2742 <s> BUSINESS 0.0000
-2.2742 <s> BYE 0.0000
-2.2742 <s> DARK 0.0000
-2.2742 <s> DATE 0.0000
-2.2742 <s> DAY 0.0000
-2.2742 <s> DEACTIVATE 0.0000
-2.2742 <s> DEFINE 0.0000
-1.7970 <s> FEELING 0.0000
-2.2742 <s> FLIP 0.0000
-2.2742 <s> GO 0.0000
-2.2742 <s> GOOD 0.0000
-2.2742 <s> HEADS 0.0000
-2.2742 <s> HOROSCOPE 0.0000
-1.2328 <s> HOW 0.0000
-1.9731 <s> HOW'S 0.0000
-1.7970 <s> HOWS 0.0000
-1.7970 <s> I'M 0.0000
-1.9731 <s> IP 0.0000
-2.2742 <s> IT'S 0.0000
-2.2742 <s> JOKE 0.0000
-2.2742 <s> LIGHTS 0.0000
-2.2742 <s> LOVE 0.0000
-2.2742 <s> MARRY 0.0000
-2.2742 <s> MUSIC 0.0000
-2.2742 <s> NETWORK 0.0000
-2.2742 <s> NOTE 0.0000
-2.2742 <s> NOTES 0.0000
-2.2742 <s> OPEN 0.0000
-1.9731 <s> PARTY 0.0000
-1.7970 <s> PLAY 0.0000
-2.2742 <s> POWER 0.0000
-2.2742 <s> QUIT 0.0000
-2.2742 <s> REPEAT 0.0000
-1.9731 <s> SAY 0.0000
-2.2742 <s> SELF 0.0000
-2.2742 <s> SHOW 0.0000
-2.2742 <s> SLEEP 0.0000
-2.2742 <s> SPELL 0.0000
-2.2742 <s> STAND 0.0000
-2.2742 <s> STATUS 0.0000
-2.2742 <s> STOP 0.0000
-2.2742 <s> SUSPEND 0.0000
-1.7970 <s> TELL 0.0000
-2.2742 <s> TIME -0.0580
-2.2742 <s> TOSS 0.0000
-2.2742 <s> TURN 0.0000
-2.2742 <s> TWEET 0.0000
-2.2742 <s> UPLOAD 0.0000
-2.2742 <s> UPLOADS 0.0000
-2.2742 <s> UPTIME 0.0000
-2.2742 <s> WEATHER -0.0726
-1.4960 <s> WHAT 0.0000
-1.6721 <s> WHAT'S 0.0000
-1.9731 <s> WHERE 0.0000
-1.9731 <s> WHO 0.0000
-2.2742 <s> YOU -0.2553
-0.3010 A JOKE 0.0000
-0.3010 ADDRESS </s> -0.3010
-1.0000 ALL IMAGES 0.0000
-1.0000 ALL NOTE 0.0000
-0.6990 ALL NOTES 0.0000
-1.0000 ALL UPLOADS 0.0000
-0.3010 AM I -0.1761
-0.3010 ANGRY </s> -0.3010
-0.3010 ARE YOU -0.1461
-0.3010 BORN </s> -0.3010
-0.3010 BUSINESS NEWS 0.0000
-0.3010 BYE </s> -0.3010
-0.3010 COIN </s> -0.3010
-0.3010 CREATIVE </s> -0.3010
-0.3010 DARK </s> -0.3010
-0.3010 DATE </s> -0.3010
-0.3010 DAY </s> -0.3010
-0.3010 DEACTIVATE </s> -0.3010
-0.3010 DEFINE </s> -0.3010
-0.3010 DESTRUCT </s> -0.3010
-0.3010 DO I -0.1761
-0.3010 DOWN </s> -0.3010
-0.7782 FEELING ANGRY 0.0000
-0.7782 FEELING CREATIVE 0.0000
-0.7782 FEELING LAZY 0.0000
-0.3010 FIREFOX </s> -0.3010
-0.3010 FLIP COIN 0.0000
-0.3010 FUTURE </s> -0.3010
-0.3010 GO TO 0.0000
-0.3010 GOOD BYE 0.0000
-0.3010 HEADS TAILS 0.0000
-0.3010 HOROSCOPE </s> -0.3010
-1.3424 HOW AM 0.0000
-1.3424 HOW ARE 0.0000
-1.3424 HOW DAY 0.0000
-1.3424 HOW DO 0.0000
-1.3424 HOW I -0.1761
-1.0414 HOW IS -0.1383
-1.3424 HOW SYSTEM 0.0000
-1.3424 HOW SYSTEMS 0.0000
-1.3424 HOW TODAY 0.0000
-1.3424 HOW WEATHER -0.0726
-0.6021 HOW'S THE -0.1249
-0.6021 HOW'S WEATHER -0.0726
-0.7782 HOWS DAY 0.0000
-0.7782 HOWS TODAY 0.0000
-0.7782 HOWS WEATHER -0.0726
-0.6021 I </s> -0.3010
-0.6021 I LOOK 0.0000
-0.3010 I'M FEELING 0.0000
-0.3010 IMAGES </s> -0.3010
-0.6021 IP </s> -0.3010
-0.6021 IP ADDRESS 0.0000
-1.2041 IS IT 0.0000
-0.6021 IS THE -0.0458
-1.2041 IS TIME -0.0580
-1.2041 IS WEATHER -0.0726
-1.2041 IS YOUR 0.0000
-0.3010 IT </s> -0.3010
-0.3010 IT'S PARTY -0.1249
-0.3010 JOKE </s> -0.3010
-0.3010 LAZY </s> -0.3010
-0.3010 LIGHTS OFF 0.0000
-0.3010 LIKE </s> -0.3010
-0.3010 LOOK </s> -0.3010
-0.3010 LOVE YOU -0.1461
-0.3010 MARRY ME -0.1761
-0.6021 ME </s> -0.3010
-0.6021 ME A 0.0000
-0.3010 MIX </s> -0.3010
-0.3010 MUSIC </s> -0.3010
-0.3010 NAME </s> -0.3010
-0.3010 NETWORK ADDRESS 0.0000
-0.3010 NEWS </s> -0.3010
-0.3010 NOTE </s> -0.3010
-0.3010 NOTES </s> -0.3010
-0.3010 OFF </s> -0.3010
-0.3010 OPEN FIREFOX 0.0000
-0.7782 PARTY MIX 0.0000
-0.4771 PARTY TIME -0.0580
-0.7782 PLAY </s> -0.3010
-0.7782 PLAY MUSIC 0.0000
-0.7782 PLAY SOME 0.0000
-0.3010 POWER OFF 0.0000
-0.3010 QUIT </s> -0.3010
-0.3010 REPEAT </s> -0.3010
-0.6021 SAY </s> -0.3010
-0.6021 SAY WISE 0.0000
-0.3010 SELF DESTRUCT 0.0000
-0.3010 SHOW ALL -0.2041
-0.3010 SLEEP </s> -0.3010
-0.3010 SOME MUSIC 0.0000
-0.3010 SPELL </s> -0.3010
-0.3010 STAND DOWN 0.0000
-0.3010 STATUS </s> -0.3010
-0.3010 STOP </s> -0.3010
-0.3010 SUSPEND </s> -0.3010
-0.3010 SYSTEM </s> -0.3010
-0.3010 SYSTEMS </s> -0.3010
-0.3010 TAILS </s> -0.3010
-0.7782 TELL FUTURE 0.0000
-0.7782 TELL JOKE 0.0000
-0.7782 TELL ME -0.1761
-1.2553 THE LIGHTS 0.0000
-0.9542 THE TIME -0.0580
-0.4771 THE WEATHER 0.0000
-0.3680 TIME </s> -0.3010
-1.1461 TIME IS -0.2730
-0.3010 TO SLEEP 0.0000
-0.3010 TODAY </s> -0.3010
-0.3010 TOSS COIN 0.0000
-0.3010 TURN THE -0.2762
-0.3010 TWEET </s> -0.3010
-0.3010 UP </s> -0.3010
-0.3010 UPLOAD </s> -0.3010
-0.3010 UPLOADS </s> -0.3010
-0.3010 UPTIME </s> -0.3010
-0.3882 WEATHER </s> -0.3010
-1.0414 WEATHER LIKE 0.0000
-0.3010 WERE YOU -0.2553
-0.3802 WHAT IS -0.0969
-1.0792 WHAT TIME -0.2688
-0.4260 WHAT'S THE -0.0458
-0.9031 WHAT'S YOUR 0.0000
-0.6021 WHERE BORN 0.0000
-0.6021 WHERE WERE 0.0000
-0.6021 WHO AM 0.0000
-0.6021 WHO ARE 0.0000
-0.3010 WISE </s> -0.3010
-0.5229 YOU </s> -0.3010
-1.0000 YOU BORN 0.0000
-1.0000 YOU UP 0.0000
-0.3010 YOUR NAME 0.0000

\3-grams:
-0.9031 <s> ALL IMAGES
-0.9031 <s> ALL NOTE
-0.9031 <s> ALL NOTES
-0.9031 <s> ALL UPLOADS
-0.3010 <s> BUSINESS NEWS
-0.3010 <s> BYE </s>
-0.3010 <s> DARK </s>
-0.3010 <s> DATE </s>
-0.3010 <s> DAY </s>
-0.3010 <s> DEACTIVATE </s>
-0.3010 <s> DEFINE </s>
-0.7782 <s> FEELING ANGRY
-0.7782 <s> FEELING CREATIVE
-0.7782 <s> FEELING LAZY
-0.3010 <s> FLIP COIN
-0.3010 <s> GO TO
-0.3010 <s> GOOD BYE
-0.3010 <s> HEADS TAILS
-0.3010 <s> HOROSCOPE </s>
-1.3424 <s> HOW AM
-1.3424 <s> HOW ARE
-1.3424 <s> HOW DAY
-1.3424 <s> HOW DO
-1.3424 <s> HOW I
-1.0414 <s> HOW IS
-1.3424 <s> HOW SYSTEM
-1.3424 <s> HOW SYSTEMS
-1.3424 <s> HOW TODAY
-1.3424 <s> HOW WEATHER
-0.6021 <s> HOW'S THE
-0.6021 <s> HOW'S WEATHER
-0.7782 <s> HOWS DAY
-0.7782 <s> HOWS TODAY
-0.7782 <s> HOWS WEATHER
-0.3010 <s> I'M FEELING
-0.6021 <s> IP </s>
-0.6021 <s> IP ADDRESS
-0.3010 <s> IT'S PARTY
-0.3010 <s> JOKE </s>
-0.3010 <s> LIGHTS OFF
-0.3010 <s> LOVE YOU
-0.3010 <s> MARRY ME
-0.3010 <s> MUSIC </s>
-0.3010 <s> NETWORK ADDRESS
-0.3010 <s> NOTE </s>
-0.3010 <s> NOTES </s>
-0.3010 <s> OPEN FIREFOX
-0.6021 <s> PARTY MIX
-0.6021 <s> PARTY TIME
-0.7782 <s> PLAY </s>
-0.7782 <s> PLAY MUSIC
-0.7782 <s> PLAY SOME
-0.3010 <s> POWER OFF
-0.3010 <s> QUIT </s>
-0.3010 <s> REPEAT </s>
-0.6021 <s> SAY </s>
-0.6021 <s> SAY WISE
-0.3010 <s> SELF DESTRUCT
-0.3010 <s> SHOW ALL
-0.3010 <s> SLEEP </s>
-0.3010 <s> SPELL </s>
-0.3010 <s> STAND DOWN
-0.3010 <s> STATUS </s>
-0.3010 <s> STOP </s>
-0.3010 <s> SUSPEND </s>
-0.7782 <s> TELL FUTURE
-0.7782 <s> TELL JOKE
-0.7782 <s> TELL ME
-0.3010 <s> TIME </s>
-0.3010 <s> TOSS COIN
-0.3010 <s> TURN THE
-0.3010 <s> TWEET </s>
-0.3010 <s> UPLOAD </s>
-0.3010 <s> UPLOADS </s>
-0.3010 <s> UPTIME </s>
-0.3010 <s> WEATHER </s>
-0.3802 <s> WHAT IS
-1.0792 <s> WHAT TIME
-0.4260 <s> WHAT'S THE
-0.9031 <s> WHAT'S YOUR
-0.6021 <s> WHERE BORN
-0.6021 <s> WHERE WERE
-0.6021 <s> WHO AM
-0.6021 <s> WHO ARE
-0.3010 <s> YOU UP
-0.3010 A JOKE </s>
-0.3010 ALL IMAGES </s>
-0.3010 ALL NOTE </s>
-0.3010 ALL NOTES </s>
-0.3010 ALL UPLOADS </s>
-0.3010 AM I </s>
-0.3010 ARE YOU </s>
-0.3010 BUSINESS NEWS </s>
-0.3010 DO I LOOK
-0.3010 FEELING ANGRY </s>
-0.3010 FEELING CREATIVE </s>
-0.3010 FEELING LAZY </s>
-0.3010 FLIP COIN </s>
-0.3010 GO TO SLEEP
-0.3010 GOOD BYE </s>
-0.3010 HEADS TAILS </s>
-0.3010 HOW AM I
-0.3010 HOW ARE YOU
-0.3010 HOW DAY </s>
-0.3010 HOW DO I
-0.3010 HOW I LOOK
-0.6021 HOW IS THE
-0.6021 HOW IS WEATHER
-0.3010 HOW SYSTEM </s>
-0.3010 HOW SYSTEMS </s>
-0.3010 HOW TODAY </s>
-0.3010 HOW WEATHER </s>
-0.3010 HOW'S THE WEATHER
-0.3010 HOW'S WEATHER </s>
-0.3010 HOWS DAY </s>
-0.3010 HOWS TODAY </s>
-0.3010 HOWS WEATHER </s>
-0.3010 I LOOK </s>
-0.7782 I'M FEELING ANGRY
-0.7782 I'M FEELING CREATIVE
-0.7782 I'M FEELING LAZY
-0.3010 IP ADDRESS </s>
-0.3010 IS IT </s>
-0.9031 IS THE TIME
-0.4260 IS THE WEATHER
-0.3010 IS TIME </s>
-0.3010 IS WEATHER </s>
-0.3010 IS YOUR NAME
-0.3010 IT'S PARTY TIME
-0.3010 LIGHTS OFF </s>
-0.3010 LOVE YOU </s>
-0.3010 MARRY ME </s>
-0.3010 ME A JOKE
-0.3010 NETWORK ADDRESS </s>
-0.3010 OPEN FIREFOX </s>
-0.3010 PARTY MIX </s>
-0.3010 PARTY TIME </s>
-0.3010 PLAY MUSIC </s>
-0.3010 PLAY SOME MUSIC
-0.3010 POWER OFF </s>
-0.3010 SAY WISE </s>
-0.3010 SELF DESTRUCT </s>
-0.3010 SHOW ALL NOTES
-0.3010 SOME MUSIC </s>
-0.3010 STAND DOWN </s>
-0.3010 TELL FUTURE </s>
-0.3010 TELL JOKE </s>
-0.3010 TELL ME A
-0.3010 THE LIGHTS OFF
-0.3010 THE TIME </s>
-0.4771 THE WEATHER </s>
-0.7782 THE WEATHER LIKE
-0.3010 TIME IS IT
-0.3010 TO SLEEP </s>
-0.3010 TOSS COIN </s>
-0.3010 TURN THE LIGHTS
-0.3010 WEATHER LIKE </s>
-0.3010 WERE YOU BORN
-0.5229 WHAT IS THE
-1.0000 WHAT IS TIME
-1.0000 WHAT IS YOUR
-0.3010 WHAT TIME IS
-0.7782 WHAT'S THE TIME
-0.4771 WHAT'S THE WEATHER
-0.3010 WHAT'S YOUR NAME
-0.3010 WHERE BORN </s>
-0.3010 WHERE WERE YOU
-0.3010 WHO AM I
-0.3010 WHO ARE YOU
-0.3010 YOU BORN </s>
-0.3010 YOU UP </s>
-0.3010 YOUR NAME </s>

\end\
